-2.860963521158170764e-01
-4.403995761267063269e-01
-6.480656444474499622e-01
5.164696414238674205e-01
1.774385858411384742e-01
-7.180236866254532391e-01
4.269725142189881861e-01
-6.787460108662757285e-02
-2.174896003768138630e-01
1.645400941896497660e-01
-9.797176872124688796e-01
-4.621514841059661816e-01
-7.226824149070265602e-01
4.922491678729112863e-01
4.457139908075344881e-01
-7.002776614911510045e-01
-4.808101894428862266e-02
-8.215310165367364359e-01
4.015237199228884890e-01
-4.033013081568217473e-01
5.996460014186579812e-01
1.236011035278072878e-01
-1.852342411433614000e-01
-8.627611135337642789e-01
-4.985582448458216742e-01
-5.972829963941803655e-01
-5.627682897407959572e-02
-4.650480527266522834e-01
-6.477215168876373497e-01
5.972659208158295208e-01
-9.860234303223858188e-01
1.188112794544591289e-01
-6.311099089625280545e-01
-6.375184618061187081e-01
-5.058895099741449464e-01
-9.726489586251223507e-01
3.650095224431182395e-01
-2.747451172266712760e-03
-6.016106129022436022e-01
6.796306331692163472e-01
1.112239299176862595e-01
1.191669909800885385e-01
-9.260054844562959353e-02
8.512849764388308316e-02
1.469952251381880792e-01
-8.129134029157651931e-01
-9.811767885715050319e-01
-6.760266857048893296e-01
6.559155029902541401e-01
-3.018094029418743052e-01
-3.280506082096141807e-01
6.642094973196166485e-01
-4.924100884469619910e-01
-3.698373926234579390e-01
-3.427662171431744564e-01
6.594690531991742599e-01
-2.671005247939732818e-01
6.840239787628410451e-01
-1.692208674992012885e-01
5.237667885433598958e-01
-6.335577254830486726e-01
-4.448417152689643217e-02
9.911009561004229251e-01
-2.826678942557354635e-01
4.485311169572239187e-01
-9.629980428942246373e-01
1.141927369745765475e-02
-8.304259253041492705e-01
6.590044629984461722e-01
9.891371623184324058e-01
9.457799702091886918e-01
-9.130882363403376445e-01
-9.723107516064422029e-02
5.706971409525736227e-01
5.974982712101415405e-01
7.838482841395972844e-01
4.155546904470315273e-01
1.817310044771485167e-01
-7.371558906072945838e-01
-4.047930973690909706e-01
5.111080893104396061e-01
-1.569723928714861216e-02
-1.656838415878021387e-01
9.614423999248087327e-01
-8.333861500355148610e-01
-6.219797759118004254e-01
4.148906821008484513e-01
4.942030894267337437e-01
1.900273313807758768e-01
-9.241713184512376777e-01
8.412061867286300121e-01
-3.868300689955803673e-01
6.673470892504007601e-01
4.586260478778856342e-01
4.454881693001291332e-01
-5.986220798221597583e-02
8.239795803600920010e-01
3.749894027695486187e-01
6.049644760541095234e-01
7.471079750164013600e-01
-6.050436178313089997e-02
-1.699997937159256622e-01
-3.824569451393786679e-01
1.550564897640782647e-02
-7.877116183369450297e-01
4.949292532499578456e-01
-1.678934578085098384e-01
2.625250715091198561e-01
2.014729188372761381e-01
-5.549087213376742156e-01
9.720677751734059235e-01
-6.122796296954851059e-01
-4.932079943474001471e-01
6.967873304428515713e-01
-8.719808289546602253e-01
-2.058823531821980524e-01
-9.609021340936676481e-01
-8.498848675948129650e-01
6.339339918186159828e-01
6.329568622077570428e-01
6.333256168395724472e-01
9.041568779105808584e-01
2.703917139108562573e-01
-3.827334134031463719e-01
9.443272711197974179e-01
-7.539529341188246914e-01
9.689856933630687230e-01
-1.490601914262748018e-01
-1.836281150477940827e-01
7.238307602882250169e-01
2.565053556315970429e-01
-4.838432061051096689e-01
-4.819802056629296505e-01
3.652385951297592026e-01
6.581287644097206790e-01
2.141105702573582459e-01
-1.104242269023272272e-01
-1.725139786420448740e-01
5.558378886757111559e-01
-8.433043211730117950e-01
7.054138413895671977e-01
4.193352672324219821e-01
3.748725284440812544e-03
-4.594677588286188996e-01
5.176901841037924168e-01
-1.252638048897516398e-01
-4.580995602107975628e-01
4.524852327518891215e-01
-8.428210713937873688e-01
-4.277748566177528300e-01
-7.802547853707300085e-01
7.525204642867833194e-01
8.326661031424742454e-02
5.435086927826009440e-01
-7.002326424657874249e-01
-8.851352900214193298e-01
6.776999053286556496e-01
7.905085405645546626e-01
7.769010374953393416e-01
9.654505478075225966e-03
6.802192536873099549e-01
4.819880087269534652e-01
-8.948471798474897376e-01
-7.978170823395513978e-01
9.203114037443775874e-01
-2.906329221320969047e-02
3.325449868209946480e-01
2.754695377427216485e-01
3.939759399034508114e-01
-1.974380218705193979e-01
-5.927999562510084530e-01
-3.590674295196540911e-01
-3.040640842105106767e-01
-2.620599438059718622e-01
-9.736432713107872061e-01
6.823531870085914885e-01
3.802848895279242747e-02
-8.844417554950774196e-01
6.028539228599045785e-01
5.299844477501429729e-01
6.646513496695822809e-01
-3.664424912615984464e-01
4.311383931621728394e-01
-6.296753158118097993e-01
5.688623017554494954e-01
3.564461320465697192e-01
7.605475805604089423e-02
-4.131875279245347254e-01
6.232039530940238770e-01
7.060325328574181825e-01
-2.329821492681840578e-01
7.193889996073803417e-01
-2.312326623702998241e-02
6.251187170828338413e-01
8.337416613271546595e-01
9.191741226322740488e-01
-5.097425456474575789e-01
-2.330823013492160367e-01
-6.218927409616958890e-02
1.936204119619602260e-01
-4.139673243911983214e-01
-5.947748160118990768e-01
-6.013936124357754931e-01
8.650756743926422132e-01
-4.165929724504398024e-01
1.904774815505283492e-02
1.770568375581551557e-01
-4.364203912088224779e-01
5.200891840433659041e-01
-9.646282361232800806e-01
-1.067396483433422638e-01
8.180351050871845775e-01
9.788964728345501687e-01
8.969265452721351117e-01
-9.131192360948370279e-01
9.645537785864510827e-01
-8.334292200575215137e-01
-2.685035028819167113e-01
7.031476457497847221e-01
-5.279168909886704508e-01
-9.075629840852239560e-01
6.602117275846681732e-01
4.321722146564324074e-01
-8.593395592867147936e-01
4.068630601133227387e-02
-1.252024472079678041e-01
-9.792291020121111078e-01
5.735086596702732020e-01
-7.219634973685025159e-01
4.855327155773998538e-01
-5.799412203747000838e-02
3.831593078477320002e-01
5.341800114196513238e-01
-9.976933472699447414e-01
1.059381156732108753e-01
5.630772074984486952e-01
-3.286453728866649548e-01
-9.013915611233087599e-01
2.054154077922878407e-01
-2.606319299911235010e-01
-7.281357472588620983e-01
-7.354392115513876949e-01
-2.602919780338803779e-01
9.669277887729330612e-01
-2.633624441982349573e-01
7.204159894015815802e-02
-2.460050934993207594e-01
7.392742383024870634e-01
-5.208148955253475432e-01
-7.367639502714629085e-01
-7.221832584476179928e-01
7.746667587199083105e-01
1.764633756801337050e-01
-4.980263276548768658e-01
2.332475561799094432e-01
1.514347049487703156e-01
-4.652906988064142713e-01
3.965370185054428731e-01
4.306804048765733306e-02
-2.227661136212399917e-02
-6.814993985246089458e-01
2.950355600054515026e-01
-1.959195176874535260e-01
-6.382251678374992743e-01
-9.518843252016999656e-01
-8.459315318570250763e-01
-1.778014054588343829e-01
8.352172243835331855e-02
1.404952895980262628e-01
-7.822044468138460438e-01
1.715071033324688798e-03
-6.608648291269019204e-01
4.479641238568281558e-01
5.088301962991259586e-01
-4.629173004651188084e-01
-4.983497090951336528e-01
7.045531161875273618e-01
-7.937624125588831347e-01
2.753778389841832208e-01
4.701969249871420509e-01
9.863187721554500520e-01
-9.290124854302967972e-01
5.129912753672245529e-01
9.337013646039280523e-01
-3.709431815097330443e-01
5.387317982026005314e-01
-1.467407107622999973e-01
6.853423750051146346e-01
1.149330227366045509e-01
-2.458141381665703840e-01
-6.029842956432094336e-01
3.701026809568008780e-02
-9.709351641546446476e-01
-6.284598557476441805e-01
-7.395377295437102205e-01
9.691386578355687398e-01
8.727540755995217836e-01
-2.688998008414724694e-01
2.697525992929354910e-01
1.755750606574402184e-01
-9.020429846520066075e-01
2.345579583856789441e-01
-5.684817235879235930e-01
-4.204100204614917846e-01
2.861361010375929048e-01
2.104920658042346293e-01
7.742472710734471519e-02
-1.854637979360029831e-01
-5.496711656748807240e-01
6.062783729331500115e-01
9.088544483915221850e-01
-1.640049803444953991e-01
-3.306162250963808891e-01
-3.183737423521129095e-01
-2.761476246679062108e-02
5.716029155022828157e-02
2.284554640590630292e-01
-8.204651665955098316e-01
-2.639568507919414220e-01
-6.423301852749261354e-01
9.570822695837257754e-01
-4.571754951156801194e-01
1.505194367600037886e-01
-5.925365657224606064e-01
6.567400631030309022e-01
9.072721962264180817e-01
-5.581562996944620103e-01
3.144735891236729586e-01
7.960897926634360466e-01
7.547710595861183425e-01
-7.150975935980721232e-01
9.147394163146314039e-01
-8.439149118841846597e-01
-7.270247758120251813e-01
4.144079544834973206e-01
-8.251481887939333681e-01
3.134151933242468324e-02
3.884193713085388744e-01
-5.093675692714181302e-01
-7.980779730463440913e-01
1.777763156223846064e-01
8.757530882102833036e-01
-5.974730275134865209e-01
5.681644016643139228e-01
9.091101564477972463e-01
-7.150658852177145253e-01
4.731361711585078123e-01
9.649589312855133549e-01
3.809867236121846634e-01
-4.737699228444003374e-02
-7.459561058959263136e-01
-3.378687560040576354e-01
3.527463174191791673e-02
-1.787284872568577487e-01
4.207249282185339112e-01
-5.969507177065125347e-01
-3.181680593361320142e-01
-8.052350078195884553e-01
-5.108802841750277324e-01
8.178066418971960960e-01
2.994140629521266916e-01
-8.975980204917630711e-01
1.994597745967974234e-02
3.749755473050060406e-01
3.972103649676761439e-01
-8.356071154424133951e-01
5.958555951733477407e-01
-3.819227412861210258e-01
-1.294392956146992457e-01
8.528379298993888913e-01
3.976864499281875798e-01
-4.403448530740847744e-01
4.474174623970450515e-01
4.779981642242649986e-01
4.950089028347148812e-02
-4.010160620060521097e-02
8.390519314528233075e-01
5.168415552017864290e-01
-8.611618427904998985e-01
-8.031619835624872472e-01
7.597818379556546819e-01
-1.480737165558667634e-01
9.390999777851127828e-01
5.267346624762567764e-01
-6.061684209145290492e-01
1.713973780518149859e-01
8.545511813094974762e-01
-3.880292148206749836e-01
-9.727911271718872044e-01
8.495998403153073308e-01
-7.800769247248264815e-01
-3.285404389771564571e-01
4.651794517027729725e-02
-2.209608069932933461e-01
-2.479905777249691301e-01
9.086069245324428501e-01
5.698727860164010117e-01
-8.446764131445645418e-01
4.697765782045248972e-01
-5.222379088175397310e-01
9.132251677568961057e-01
-9.936779776984898671e-01
-6.080991136089484161e-01
-3.306190783563527358e-01
-2.623274598120017842e-01
-7.094845885608478397e-01
5.332123158103003746e-01
4.765984862796308619e-01
-4.112405272623453900e-01
5.667982005370353349e-01
-6.255565615224951692e-01
3.331889401781125137e-01
-1.428142394835285600e-02
4.330577472227887803e-01
6.502756314166913132e-01
-6.157832697431018243e-01
-2.610583608465806282e-01
5.973489668050946388e-01
-9.202285086193608965e-01
9.426910591829287256e-01
-3.165008981270056587e-01
5.640390254190643660e-01
6.180198484014765015e-01
-8.704571138013554865e-01
7.811660201163395101e-02
-4.417281187922956764e-01
-2.571804084738538165e-01
-7.159440673244421571e-01
-8.680804136356556899e-01
3.129959366162593515e-01
6.573596584600343018e-01
8.204414745735355563e-01
9.111631920900098436e-02
5.517507191226651564e-01
9.707209014000310887e-01
-7.131166109607909309e-01
2.991542813625642783e-01
9.631805371581905195e-01
8.199259858604193152e-01
-8.534766811523477603e-01
6.188584394535707744e-01
1.281892169902003609e-01
5.430816573337438058e-01
8.573414722228838158e-01
2.037386995573742254e-01
3.890013459767771575e-01
-6.716720606363206780e-01
7.489104733605478348e-01
-2.866199577759773742e-01
-7.441223579154345735e-01
8.888523906155751941e-01
2.378667163624659242e-01
4.767115437967222036e-01
2.307561082691818033e-01
-7.799082411619411292e-01
-3.507803368600490579e-01
-3.927428741942642354e-01
9.293413201265450230e-01
6.580134823655663379e-01
1.378690861367359854e-01
-9.451122706283423547e-01
2.156216789228386777e-01
8.281863862010534483e-01
5.946749787166170087e-01
-9.356297896499023992e-01
-3.436534084357512064e-02
-8.965117692092994250e-01
-2.408927952532209371e-01
7.002876253840595311e-02
-1.073597695515604578e-02
6.204723484330083583e-01
1.104466345479195866e-01
4.320662399996508807e-01
-3.698526459949988965e-01
4.870079164667386884e-01
-6.530521796095984932e-01
1.515372693522960557e-01
9.446314670183613149e-01
-5.953557755999987489e-01
-6.376179530740222479e-01
-3.078260212287047271e-01
1.261141648323593767e-01
4.427799632416911102e-01
-5.835207329359726192e-01
-1.569896805027075626e-01
7.608948020314914018e-01
-7.522440174653355349e-01
5.876903609309149790e-01
4.102354609846747824e-01
-8.365954478417341189e-01
-8.890942578907918836e-01
8.875122999677336200e-01
2.172737893452658664e-01
2.551968334296497165e-01
-3.790072601200422664e-01
5.872554334434765266e-02
-2.941370818149202648e-01
8.664074809958757228e-01
-1.650012451101390276e-01
7.519199573490789046e-01
3.777224234417306814e-01
-5.107260358367240460e-01
7.598696131040938440e-01
-8.888453559296911610e-01
9.439771038250455160e-01
-3.898031797501047002e-01
4.391958124865480428e-02
5.049925075501231486e-01
-6.100804435260716030e-01
6.723501779596818828e-02
1.196076986408260989e-01
7.903019978753467178e-01
1.613662327963878429e-01
3.875160686473868576e-01
7.437601344365227796e-01
4.787688158383600623e-01
1.320201507736049606e-01
8.969634445221263963e-01
-4.431428710288052297e-01
9.888316893149307063e-01
1.400968971553158138e-01
-6.415976880124349968e-01
6.798514332697072060e-01
7.444288111667636265e-01
7.497243805472297851e-02
-4.741765768989123497e-01
-6.210930461591179785e-02
-9.084307633965196249e-01
8.115473651605964456e-02
3.656241796521995102e-01
-1.073319587678394083e-01
-9.685786943489869127e-01
1.156480723629911278e-01
3.233592046425977085e-01
-1.218149470652525324e-01
2.271266886850615840e-01
1.970306398807983861e-01
8.882646341130011614e-01
1.629500413204396647e-01
-4.392154443026838884e-01
3.718284989136184659e-01
-1.182867973629262437e-01
9.951339293067267278e-01
-8.332463784942947260e-01
-1.447046667894220651e-01
-1.229418907194455013e-01
4.158877649956680411e-01
-6.570001569376833217e-01
7.355967532107838824e-01
-4.675199544854979905e-01
-5.381447058311916720e-02
-3.416800915848956510e-01
3.643492238627203950e-01
-7.886819071022754812e-02
5.848168168412581913e-01
1.125601498055064376e-01
4.554017640605052542e-01
-9.813991917439879309e-02
-4.156806267770716268e-01
-2.632337484769797786e-01
5.253622237962107810e-02
-1.517322362033626248e-01
-5.751444836013823725e-01
-8.449916703013309327e-01
3.505776403026283905e-01
-7.878546670456163525e-01
3.268817526262424167e-01
-2.503753075652084270e-01
-8.121736760853393022e-02
3.375329173739693989e-01
9.648004039418509592e-01
1.698887267598985229e-01
9.337639914064521651e-01
-6.898729642472729573e-01
6.577537477387882525e-01
4.356878342206804700e-01
-2.335559038809440491e-01
5.140604015877818789e-01
9.691105274776190548e-02
-7.404436301550507693e-01
-9.247565735283262978e-01
9.688803244432364625e-01
7.124727675008102334e-01
5.928671764828761237e-01
6.694281641683004214e-01
4.631229635904756670e-01
-5.349242202285291459e-01
-1.832742298196856634e-01
-4.849554048259903105e-01
2.152676772685186979e-01
-4.825900440014585513e-01
-6.520949707229193315e-01
7.738032068881839365e-01
-5.743833799610542634e-01
-2.232283235009120403e-01
-9.641198453300257043e-01
-7.570119184457135830e-01
-3.307999483238104332e-01
-4.112819059400498745e-01
-8.560274179150990648e-01
-6.420511271238840134e-01
5.643547263321793128e-01
-2.613724730802813312e-01
4.955134542243950779e-01
7.582556564097511220e-01
-3.119463142514493637e-01
4.311881886685431375e-02
2.264508477892546168e-02
9.474522234260203124e-01
-3.067476472431007739e-01
-9.893934920257130283e-01
5.698753555058828635e-01
3.703618361092366751e-01
1.985354875184959234e-01
2.992010376278320116e-02
5.173981436799830469e-01
9.093493257613656233e-01
-2.321581522391540364e-01
-8.983376325987459943e-01
7.396731107442053865e-01
-9.161260246219402603e-01
-1.145045261536636882e-01
-4.097031489956863837e-01
5.159232563223454804e-01
6.525255570448558196e-01
6.090511909235949428e-01
-7.267860804248638118e-01
-6.516745591253627623e-01
2.201976910517342567e-01
-5.214375620178985926e-01
4.603833465570674743e-01
7.078213032906923718e-01
9.536897494702785139e-01
-7.862663226670885130e-02
-5.533283854973076732e-01
-6.039205386928545582e-01
-6.239723036920659105e-01
7.794189198592034185e-01
-7.912258199228561217e-01
-6.271428249503783192e-01
9.230553664946072878e-02
8.628983827543081908e-01
4.575303413766269589e-01
-1.604420557210870513e-01
9.771081807686685661e-01
3.389745893614637406e-01
-4.573140429804780638e-01
7.730057271499013449e-01
-1.481151499449284703e-01
7.535918427113612594e-01
-5.087475919551514014e-01
1.650079542844475888e-01
-3.499244947369977154e-01
8.640821160827441005e-01
8.127934422639435663e-01
-6.630450058075605391e-01
3.800829977167730078e-02
-5.834534029143805256e-01
7.109431466559297252e-01
-5.875767858790736931e-02
6.408299271887210047e-01
9.762298294482263383e-01
1.251893531205761079e-02
-8.455220399981813184e-01
7.151104985646239420e-02
-1.363498627412045305e-01
-9.489105975190024189e-01
-4.501090609992894898e-01
-6.498797207120323716e-01
7.234961279950551383e-01
4.331934008956426219e-01
-4.794187299087997456e-01
-9.450916379634903830e-01
2.246891374159889487e-01
-9.986937014375283361e-01
-6.544495365075040372e-01
-3.415885982447459668e-01
-4.705730386039639335e-01
-3.109427511851656778e-01
8.145550485752361958e-01
6.364498811809904399e-01
6.111810252319316294e-01
-7.053585266657558250e-01
-5.057334281668202092e-01
-1.150253236913316712e-01
2.310044515123417241e-01
5.005217094923608556e-02
-4.799537895248751074e-01
8.555347487412512386e-02
-4.808045059865910797e-01
7.940500157616261490e-01
7.196567966284803664e-01
-6.853410167573144030e-01
5.057920026687257042e-02
-1.699415175978047365e-01
4.129057649572154265e-01
3.757235251711852353e-01
-1.036267094226128727e-02
-6.178991333576395739e-01
9.234730885078397122e-01
6.206729001966675430e-01
-5.754767207732875978e-01
-3.412958688138623131e-01
3.750046081829885303e-01
7.736840205819204286e-01
-5.184159413733901989e-01
4.928439804814335190e-01
8.143059381056647617e-01
-5.872701721615192216e-01
-3.268469135596050457e-01
9.334357019982775228e-01
-9.903887180131691892e-01
-4.094897756192197313e-01
7.055348556599745358e-01
-1.289423086569883026e-01
-5.306694866463859128e-01
2.042243145817430605e-01
-9.243829516520967182e-01
-1.339353370582534453e-01
-9.469242411028422346e-02
-1.745726613034876973e-01
4.909565217776523660e-02
7.630178873641744186e-01
7.473640310533757880e-01
-4.635223650092588077e-01
4.457241676460867996e-01
-8.226317095100419419e-01
-7.464278505797938834e-01
-2.231531412861791352e-01
7.451596822971093825e-01
3.214926397900401689e-01
7.290731458318564506e-01
-9.112960628440158750e-02
6.189654216006130749e-01
1.030090027178713896e-01
-7.174730617145081979e-01
-2.951640473216683436e-01
-5.464291795326654544e-01
5.932367375961855593e-01
-8.202056807905140356e-01
-7.830451301805994024e-01
-2.310297042891276131e-01
-8.919988231087905284e-02
-1.073131340255000232e-01
-6.454064792900617853e-01
6.345436591140938276e-01
4.142068071277118513e-01
9.148954892866081323e-01
-1.618366922284475429e-02
7.259518320883198150e-01
5.167544497020803984e-01
4.099749884376227005e-01
9.722989104913948299e-01
-3.002907096819082966e-01
-9.078169555786663736e-03
-3.930899003647347900e-01
9.191913799940465424e-01
-2.559244821455595176e-01
8.489339433190301598e-02
-2.323760264794703101e-01
-5.749687035326707107e-01
3.969423609102076256e-01
-6.671759740213596412e-01
6.098966176829614394e-01
3.002705691896521145e-01
2.015195757604564264e-01
-6.348171051896362993e-01
5.914970170278905925e-01
5.499430268975491476e-01
4.972964531856307602e-01
-1.484548933477134458e-01
-7.608392373982977297e-01
-8.661159842014007904e-01
-9.284046871847901894e-01
3.118570302879524192e-01
-5.743894075968507540e-01
6.534360239574832363e-01
7.958604045069783695e-01
-3.048187097076777707e-01
-3.459112409245810316e-01
-2.976920266342704124e-01
8.692341218247070511e-01
-3.351377423775294684e-01
7.289452902513076094e-01
-8.755353049371539242e-02
5.399318853011050301e-01
8.340209764346577792e-01
-5.000140942614021977e-01
-8.704615665081625320e-01
6.117462276270373422e-01
-1.001539888960158997e-01
-8.577689859131578665e-01
-3.649876697473102283e-01
-1.679114280349869315e-01
6.913151859823050138e-01
7.675103049028539903e-01
8.040129598204512895e-01
