-4.778979191934167731e-02
-7.525779263260613527e-01
-4.551700500979399266e-01
-5.970457595656851746e-01
-2.678674470532217411e-01
-7.180236866254532391e-01
4.269725142189881861e-01
-6.787460108662757285e-02
-2.174199480165744380e-01
2.029713902866862596e-01
-9.798356980682847439e-01
-4.600413801420202842e-01
-7.346275415588364721e-01
4.881516797601296309e-01
4.422403030522508716e-01
-7.032201210388918655e-01
4.534687528897421438e-03
-7.154931897493213011e-01
4.292040345985680405e-01
-3.799648803340238135e-01
6.146648750618823875e-01
1.394097481032845476e-01
-1.947582759846577805e-01
-8.608357256963864446e-01
-5.127040511969210845e-01
-5.266082379245936584e-01
-2.232975472228925645e-02
-4.939723890869976430e-01
-6.147632060688246192e-01
6.205326398938524335e-01
-9.860434736844769787e-01
9.105464801844111167e-02
-6.139726812408340395e-01
-6.032106038259044123e-01
-5.209734893823431134e-01
-8.608669522759474502e-01
4.724397396104012548e-01
-6.478330920980393537e-02
-7.487891710822184299e-01
7.211785534666004249e-01
9.377835248702588722e-02
-6.567010106802573244e-02
-7.347554809042168567e-02
4.112788688203133404e-03
8.454056845583109159e-02
-7.972757977330645618e-01
-9.225987112227328479e-01
-6.342874708414851792e-01
5.834352842040380072e-01
-2.847491221196399303e-01
-3.181183019005905388e-01
4.743589785843080886e-01
-5.176295310805679728e-01
-3.952947390900177771e-01
-2.194320201590560515e-01
5.849026035902585852e-01
-2.077462552774402837e-01
7.017097371341060041e-01
-1.129932511053952648e-01
6.306592250744073036e-01
-6.087125654425652455e-01
-4.448417152689643217e-02
9.911009561004229251e-01
-2.826678942557354635e-01
4.486893557881954653e-01
-9.629980428942246373e-01
3.001813345570039648e-02
-8.304259253041492705e-01
4.778813968841828519e-01
9.713543507563189294e-01
9.492192465214119856e-01
-9.154716819089204760e-01
-9.122979180289268741e-02
6.023870084112701306e-01
5.961215499291943054e-01
8.618876712400305173e-01
4.155546904470315273e-01
2.231219834384459144e-01
-7.369951632925465512e-01
-3.785552034399971566e-01
4.826633552046984965e-01
-2.252484290555540822e-02
-1.309158226342147791e-01
9.223374264324206706e-01
-8.267538355300766417e-01
-6.219797759118004254e-01
4.118289770870465216e-01
4.924615131118829092e-01
2.500191317302806748e-01
-8.965146820957925478e-01
8.217209988851869040e-01
-3.868300689955803673e-01
6.051018548496872596e-01
4.304481380411689373e-01
4.692542194036535830e-01
-3.969166881534119673e-02
9.046372809680952587e-01
2.695513253474811632e-01
2.928997774451201908e-01
7.305360181832859512e-01
-3.460966269869695383e-02
-1.768678844298363362e-01
-3.240122006981249747e-01
-1.427227756780568430e-02
-6.717333971110382995e-01
3.655154670759344082e-01
-8.831342376131977312e-02
2.862980211687149446e-01
2.014729188372761381e-01
-3.856454139209872789e-01
7.791967598993285726e-01
-5.872597003494884893e-01
-4.932079943474001471e-01
6.940351784363585352e-01
-7.065706523168249209e-01
-5.954993011212886961e-02
-9.063389602130278444e-01
-8.498848675948129650e-01
6.339339918186159828e-01
6.329568622077570428e-01
5.745166053547008378e-01
7.229655564029062731e-01
2.703917139108562573e-01
-3.998060797023385571e-01
9.518209878588175243e-01
-7.535703573928272947e-01
7.865960027915197550e-01
-1.490601914262748018e-01
-2.054324000451316079e-01
3.889326257025627620e-01
2.387975629135124789e-01
-3.189980538971180501e-01
-4.819802056629296505e-01
3.898223504605577983e-01
6.854510720328123030e-01
2.104010900513776094e-01
-1.263822549283759311e-01
-1.946463356889983898e-01
5.328805411736493580e-01
-8.111884397802214819e-01
7.006386159656592394e-01
3.929212446383578139e-01
2.361222097909637489e-03
-4.909663488411206700e-01
5.443258429016539779e-01
-1.412257933142766764e-01
-4.664198126293167546e-01
5.139368364366948549e-01
-8.428210713937873688e-01
-3.874726123084014096e-01
-7.798618323451822487e-01
8.213265593205184567e-01
7.996502667160283739e-02
5.661699169209061244e-01
-6.832820135229704661e-01
-8.731953023895661081e-01
6.852564489559799243e-01
7.645579769037357254e-01
8.085681725443548684e-01
1.604767839592936135e-04
8.527152435014367926e-01
4.493804412598642606e-01
-8.802602655553048994e-01
-7.377582801616412445e-01
7.731348371214701309e-01
-2.905193812679511545e-02
3.649826588487572465e-01
3.864573326620801552e-01
4.423008922359136785e-01
-1.955001640726438394e-01
-5.778957488195032299e-01
-3.222644306411883708e-01
-3.040640842105106767e-01
-2.217813979599234653e-01
-9.736432713107872061e-01
6.173221535073785127e-01
5.134821201353510778e-02
-8.844417554950774196e-01
2.037188804290494537e-01
5.671837235960204282e-01
5.444185370526367640e-01
-3.689269424222909599e-01
2.201607131716658006e-01
-6.296753158118097993e-01
5.952759541709879976e-01
3.630200264828896128e-01
7.402885178338272643e-02
-3.989257826968027332e-01
6.598838368846740021e-01
7.050293284888476952e-01
-2.329821492681840578e-01
9.049223319401815679e-01
-5.605250190944304628e-02
7.151257645152336861e-01
1.162832126837058500e+00
8.574228829198793367e-01
-5.795386584839575805e-01
-2.452359520245107338e-01
-6.755015261168333118e-02
1.868425369657677748e-01
-4.161257472983863615e-01
-5.931571348893678319e-01
-6.032557039627970408e-01
8.998409745819642147e-01
-4.117953446314466803e-01
1.754009457357241786e-02
1.711320105763118327e-01
-4.373263474485900582e-01
4.864721696656090777e-01
-9.445455094128707429e-01
-1.091435226588978319e-01
8.028120946583849893e-01
1.014351436795138062e+00
8.986504457398438728e-01
-9.179616225635561788e-01
9.648400262668928029e-01
-7.410046650424605419e-01
-2.685035028819167113e-01
7.141240469454700479e-01
-5.081301951914874993e-01
-9.001405532799098275e-01
6.558358292156509783e-01
2.252875876827841461e-01
-8.544359441053294146e-01
4.691144843111132168e-02
-1.276555239782428686e-01
-9.439882568124948747e-01
5.735086596702732020e-01
-7.346328275921335527e-01
4.497304623963254699e-01
-6.153104238477338783e-02
4.341466013034044336e-01
5.772874910244009117e-01
-9.976933472699447414e-01
1.104895258839035665e-01
5.372319305497784692e-01
-5.296242514891841280e-01
-9.124696461171769579e-01
3.303005080783332770e-01
-2.481503530546364522e-01
-7.345371141932784953e-01
-7.342799379196370824e-01
-2.230395584061236336e-01
8.874791163069797317e-01
-1.864057441105834156e-01
-2.401243163583133000e-01
-2.314966654408397995e-01
7.213175039761121621e-01
-5.315637774859804932e-01
-7.333004209102043092e-01
-7.340295505473812820e-01
7.521880160949647731e-01
-1.372616213448755174e-01
-4.342161950647293600e-01
1.453994192022925180e-01
1.594155344851419798e-01
-4.525945540232008679e-01
1.594593714620917979e-01
3.260689990831627111e-02
-5.909496490104821503e-02
-5.182461570771675907e-01
2.900002975144078121e-01
-2.241117916818088918e-01
-6.271714185238210781e-01
-8.518384239647882605e-01
-8.514238118703644220e-01
-2.110235679675358800e-01
-8.223210867894661935e-02
2.014083109066168165e-01
-7.904954676202747832e-01
9.121400266033079240e-03
-6.484589150686218550e-01
4.416963409354266457e-01
4.649123893195598600e-01
-4.411122291800010364e-01
-4.882385266945485358e-01
6.202154190468058825e-01
-7.937652545059181719e-01
2.183720139383385772e-01
4.673746919557981161e-01
8.293473854683944824e-01
-8.234367638520935229e-01
5.166678529691329791e-01
9.208880582481073773e-01
-2.808049823289514579e-01
6.228401448276550401e-01
-1.467407107622999973e-01
7.228248730715505221e-01
2.424483382164263068e-01
-2.373792224639730553e-01
5.301067470802288406e-02
4.332164038442473664e-02
-9.633568322235572801e-01
-6.278909457816037598e-01
-7.395377295437102205e-01
1.021802081161315767e+00
5.046232111004722576e-01
-2.523235004704327822e-01
1.841831088651489645e-01
1.755750606574402184e-01
-9.021776450577646544e-01
2.344752388489743933e-01
-5.455638938371195623e-01
-5.329913764604601312e-01
-2.466149997366784696e-01
1.977270083068913276e-01
9.334166129242159327e-02
-1.856276990835510898e-01
-5.496711656748807240e-01
6.065965055889616098e-01
7.828652472964311437e-01
-1.055335345629824784e-01
-3.551672776434521284e-01
-3.309696313896322017e-01
-2.464094067398439961e-02
-2.460890104337630849e-03
2.110963923184009661e-01
-8.174662815525939319e-01
-2.575314551170732602e-01
-7.237781137637724349e-01
6.398186070713339779e-01
-4.571754951156801194e-01
1.505194367600037886e-01
-5.925365657224606064e-01
6.567400631030309022e-01
9.072721962264180817e-01
-5.581542338869546205e-01
3.144735891236729586e-01
7.960897926634360466e-01
7.547710595861183425e-01
-7.150975935980721232e-01
9.147394163146314039e-01
-8.439149118841846597e-01
-7.270247758120251813e-01
4.144100785670954412e-01
-8.251493578344096802e-01
3.394148779123799115e-02
3.881400194930411107e-01
-5.093675692714181302e-01
-7.980779730463440913e-01
1.777763156223846064e-01
8.757530882102833036e-01
-5.974642576018078799e-01
5.681673820803629926e-01
9.134389792289614451e-01
-7.152228821861960073e-01
4.749451220264893081e-01
9.649555652377711512e-01
3.809867236121846634e-01
-4.737699228444003374e-02
-7.459562411090838729e-01
-3.378650012855612950e-01
4.196652239392602984e-02
-1.782247737145883915e-01
4.209218636263510338e-01
-5.977191628734328521e-01
-3.201730066666374497e-01
-8.052352505183529852e-01
-5.108802841750277324e-01
8.153881194076553207e-01
2.902093652920633704e-01
-8.844353545466295818e-01
5.995474607859463054e-03
3.529329741823801214e-01
3.971068628180174365e-01
-7.890191923948973729e-01
6.421236727879847672e-01
-3.842616839395714967e-01
-1.769606725142284787e-01
8.737132238396854156e-01
3.754836848588530285e-01
-4.230422675725317716e-01
4.774325583904871495e-01
4.903336954560041372e-01
4.609978709301700700e-02
-4.938352573163778264e-02
8.297778559163592194e-01
4.933807288080025444e-01
-8.721696438821657793e-01
-8.083376749969771735e-01
7.044610288395790620e-01
-1.182958060260460575e-01
9.239151852146969546e-01
5.307517717093283016e-01
-6.343950155212507713e-01
2.542003843727352330e-01
7.772184138493287708e-01
-3.948494705880970512e-01
-9.726553316008880179e-01
8.461808563823156604e-01
-7.963159131156423154e-01
-3.086760083787463138e-01
-1.074615299772844340e-02
-2.113472350271706490e-01
-2.302118345522970455e-01
1.016740919469020898e+00
6.364765142454780200e-01
-6.351729278627546993e-01
2.484149517992504386e-01
-2.452936758925292338e-01
7.479122209701463131e-01
-5.471419286328773994e-03
-1.944001816151141870e-01
-3.306190783563527358e-01
-2.623274598120017842e-01
-7.094845885608478397e-01
5.329772052270488336e-01
4.413221513156254106e-01
-4.111815218344374578e-01
5.650092502111884185e-01
-6.144755736019933412e-01
3.365517557558676542e-01
-1.144611654996280370e-02
4.357515703297391574e-01
5.998836944810433947e-01
-7.135165002693365510e-01
-2.865352080837071935e-01
5.759113902627406301e-01
-9.340363853614711553e-01
9.288244745255220813e-01
-3.076531860385546824e-01
5.626293267835543732e-01
6.301730608636756381e-01
-9.356885708697805226e-01
4.719220169101397133e-02
-4.158694442120862700e-01
-2.875143498229077443e-01
-7.367455078278793978e-01
-8.678876548077367747e-01
3.382784225976889769e-01
6.417754678981651972e-01
7.882577910027395163e-01
1.053648226732361026e-01
4.465466800654556145e-01
8.729852331384075903e-01
-6.555310761569114186e-01
4.354871163155156211e-01
9.242905429151518915e-01
8.365422512415641165e-01
-6.821820862049053913e-01
6.016081510158971524e-01
2.035418145781910659e-01
5.997417466011186749e-01
8.425257210909669059e-01
1.515328335388266556e-01
3.503870958755458953e-01
-6.031335010297553811e-01
7.332271458315245960e-01
-2.953901090168983834e-01
-5.676982458678666577e-01
9.122918690785966067e-01
2.582729951936619806e-01
3.628506613775492884e-01
2.987161583345812055e-01
-8.351302518285633747e-01
-3.664888313577104872e-01
-4.440108222784286407e-01
8.294916432237275927e-01
6.345514649331943646e-01
1.378690861367359854e-01
-9.451122706283423547e-01
2.156216789228386777e-01
8.280597951362761444e-01
5.946749787166170087e-01
-9.535017438433573966e-01
-3.436534084357512064e-02
-7.297533577750063838e-01
-2.255642980224102090e-01
6.723612735251603689e-02
-8.617358671971109274e-03
6.148959010827914629e-01
8.114494349670149653e-02
4.333028349439267957e-01
-4.430725092192709380e-01
4.870079164667386884e-01
-6.905863138927881284e-01
1.513883986366696133e-01
9.200890343426614271e-01
-5.689372214369750047e-01
-6.313143412785264807e-01
-3.399660845608400428e-01
1.629606321292079441e-01
4.371911895611919063e-01
-5.835207329359726192e-01
-1.543106886156309920e-01
7.623679671847187755e-01
-8.064567364696346718e-01
5.618396265326031092e-01
4.280926819577965392e-01
-8.365954478417341189e-01
-8.274741533966154527e-01
9.120593361792092013e-01
1.953127557053001839e-01
2.362918017314311336e-01
-4.566726994439529452e-01
1.577788984017129137e-01
-2.261562678514466782e-03
8.821128397569070190e-01
-1.892253318667182493e-01
7.583632177095520621e-01
3.230877336861822657e-01
-4.828227819190784031e-01
6.526741341799363605e-01
-7.798477345185728105e-01
8.692806777329854517e-01
-4.121881208739983649e-01
4.391958124865480428e-02
3.463385874263716357e-01
-4.305243795783719740e-01
4.285110627779113723e-02
1.196076986408260989e-01
7.928279456073338283e-01
7.769790890777632589e-03
2.501746469097517744e-01
6.932584621215370779e-01
4.787688158383600623e-01
1.320201507736049606e-01
8.969634445221263963e-01
-3.879151885471197603e-01
1.156656803500277553e+00
1.400968971553158138e-01
-6.260324996033815870e-01
6.728165155147087795e-01
7.440940565315160571e-01
2.426473243527439427e-01
-4.741765768989123497e-01
-4.165517626364527437e-02
-6.018207004852208497e-01
9.787916535265407669e-02
2.139954866803200906e-01
-1.073319587678394083e-01
-9.894623461425577915e-01
9.100202486378280997e-02
3.266981296457340811e-01
-1.083657650121974403e-01
2.478564995864170062e-01
2.187377979234033099e-01
8.589463466518342250e-01
1.663520118756318389e-01
-4.167333415909946215e-01
3.730531686404587322e-01
-8.899832441705797514e-02
9.708224703667377442e-01
-8.170062257320881427e-01
-1.369739477540225792e-01
-1.789015600726295563e-01
4.158877649956680411e-01
-6.949020008990733910e-01
7.351410011077047502e-01
-5.296531324667982377e-01
-5.095714425697413230e-02
-3.625866976327977720e-01
3.493194259275979041e-01
-8.986794301394439299e-02
5.778813589915222648e-01
1.348875444435686521e-01
4.265511091984864334e-01
-8.956778314548401176e-02
-5.707455754733951059e-01
-2.315296930814564613e-01
3.914823254980755868e-02
-2.071027529049769000e-01
-4.367469360206409079e-01
-8.449973473445383521e-01
3.225385000358925169e-01
-8.978633324809185412e-01
2.828677795580241683e-01
-2.524296480516098340e-01
-9.509115809842270950e-02
3.053085384954980497e-01
9.648004039418509592e-01
1.334656614839114797e-01
9.337639914064521651e-01
-6.320944560324177619e-01
6.448848701105828196e-01
4.356878342206804700e-01
1.380549326273050048e-01
4.815292116313613091e-01
2.088215598056748501e-01
-7.382302100300701664e-01
-7.281269260289453538e-01
9.688803244432364625e-01
6.898811684573075143e-01
5.878905992067995356e-01
6.705190367766548087e-01
4.515196482652839016e-01
-5.672951000109802688e-01
-1.827022875018271819e-01
-4.849554048259903105e-01
4.426754495660553679e-02
-4.532477252324833006e-01
-7.301138097547799077e-01
4.659286732189641400e-01
-5.179900778099272296e-01
-1.593208304906057193e-01
-9.534345935361264734e-01
-7.524044235341650344e-01
-3.249524706855272949e-01
-4.093853849262859557e-01
-8.573445925139044910e-01
-6.404317636179283069e-01
5.323388113081098938e-01
-2.655648905748310695e-01
4.967583741753460180e-01
7.630277531219035181e-01
-3.113403957681112888e-01
7.184343514608246273e-02
4.473729281724687055e-03
9.493320487364771409e-01
-2.950588295291580732e-01
-1.021851561584410817e+00
5.684962351317158769e-01
3.741701200901701441e-01
1.983208017581648275e-01
-5.563663606895353358e-02
5.173981436799830469e-01
8.989930716550109668e-01
-2.506790369032815269e-01
-9.064535309524857087e-01
7.436086484314531342e-01
-7.297585227148083442e-01
-1.195870248086577797e-01
-4.154832614598718554e-01
5.180258935540096310e-01
6.197800669722794975e-01
6.090511909235949428e-01
-7.151129041243214912e-01
-6.174405933668977164e-01
2.232466807011253274e-01
-5.673468333003800490e-01
4.215148649311213358e-01
7.078213032906923718e-01
9.496311571814596286e-01
-5.629693584079302482e-02
-3.643124160878728479e-01
-5.937690393953508616e-01
-7.402185715944962219e-01
7.678081506159597502e-01
-7.854540956377263905e-01
-6.282078921145911599e-01
5.785255913239342046e-02
9.369899831468271323e-01
3.823222384744443536e-01
1.239810288554206164e-01
9.646752303184776833e-01
3.548262114637729114e-01
-4.484596527231258789e-01
7.701194526821851793e-01
-1.371544075201948099e-01
7.744524570814956821e-01
-2.152722536645565177e-01
1.015622032243672090e-01
-2.815188326795000640e-01
8.571127629415604687e-01
8.011419403751985913e-01
-4.463917044196336059e-01
4.718848436171130256e-02
-5.493982930485684646e-01
5.584841375787982232e-01
-5.448761125044360165e-02
6.663640774479306916e-01
9.666952254129167477e-01
-7.924882564995422429e-02
-8.397677624782581285e-01
1.021166478928312027e-01
1.757730222128472269e-02
-1.006563645025427611e+00
-4.431052816863910726e-01
-6.560982203697123261e-01
7.120163409984121561e-01
4.394009554870213496e-01
-4.383928027664971139e-01
-9.643340103477168190e-01
2.136733575761437520e-01
-9.213655169518500943e-01
-6.544637462426780017e-01
-2.900347661575610747e-01
-4.681911273159538589e-01
-1.646301522068347734e-01
7.153143954541647531e-01
6.331667974673256261e-01
6.234081512232784172e-01
-7.884953040581699213e-01
-5.847120149765875352e-01
-1.150253236913316712e-01
1.968702912980371811e-01
-6.964409531298836054e-02
-4.879269740395056898e-01
-5.252114012633111173e-01
-4.867042670391134029e-01
7.875894465525286048e-01
7.179393162050314858e-01
-6.853410167573144030e-01
1.489846527507675093e-03
1.756995325037480349e-01
3.976328541010171191e-01
4.551126148967450935e-01
-1.036267094226128727e-02
-6.178223025345955799e-01
9.235176297968343828e-01
5.999838586562882270e-01
-4.706597407809672839e-01
1.546690995148283787e-01
3.869371619305052024e-01
7.597160987460368498e-01
-5.183276869093257355e-01
4.928439804814335190e-01
8.140321960529887102e-01
-4.728723338591763192e-01
-3.819159994275532766e-01
9.567283985670254065e-01
-9.791581809322140728e-01
-4.120918696879249388e-01
7.577058113859287403e-01
-1.140003109968417555e-01
-5.333585692139727330e-01
1.985740664629786767e-01
-8.491280831893898151e-01
1.643139949138045786e-01
-9.469242411028422346e-02
-1.745726613034876973e-01
4.909565217776523660e-02
7.630178873641744186e-01
7.473640310533757880e-01
-4.635120359717226357e-01
4.457241676460867996e-01
-8.226317095100419419e-01
-7.464278505797938834e-01
-2.231531412861791352e-01
7.451596822971093825e-01
3.214926397900401689e-01
7.290731458318564506e-01
-9.111898586641155318e-02
6.189700061747235305e-01
1.004638307267427255e-01
-7.173499816772427318e-01
-2.951640473216683436e-01
-5.464291795326654544e-01
5.932367375961855593e-01
-8.202056807905140356e-01
-7.830336540100857334e-01
-2.310148022088813480e-01
-9.301594002769537906e-02
-1.072285971963176654e-01
-6.470337654678620654e-01
6.345268288753842523e-01
4.142068071277118513e-01
9.148954892866081323e-01
-1.618434528863115299e-02
7.259498103168218197e-01
5.105692479283966412e-01
4.095632786581431262e-01
9.721081984611721349e-01
-2.997380069016043480e-01
-7.393443297862133806e-03
-3.930837479977258853e-01
9.191903550946156631e-01
-2.537595616480666227e-01
9.316764333923260866e-02
-2.444425189249150587e-01
-5.625060398450594246e-01
4.175388907060144650e-01
-6.671355045823841312e-01
5.671000514209423304e-01
2.575022259479701203e-01
2.033454946387913131e-01
-5.937807300357663687e-01
5.699371872975741438e-01
5.706271951965466993e-01
4.816065489151394319e-01
-1.749726599057034038e-01
-7.688738372939944998e-01
-8.632553828761335701e-01
-9.197847534414559378e-01
3.201392016973216847e-01
-5.536013471606630043e-01
6.639525295725590137e-01
8.002728330776918142e-01
-2.529400681515202587e-01
-3.725619371964130067e-01
-2.838637653973894448e-01
8.656204747295804802e-01
-3.089670518531570376e-01
6.528091483689771879e-01
-1.508882959902877255e-02
5.457133563143182764e-01
8.338838616949921789e-01
-4.970351547489584298e-01
-8.560521802904135225e-01
5.941615199923585555e-01
-4.868465369910943835e-02
-8.668670651238448155e-01
-3.821124431508344799e-01
-2.702418128722238189e-01
6.304437959840273331e-01
5.717400946517842142e-01
8.059584513014821372e-01
