8.680776539413823101e-02
3.373815024163825949e-01
3.758039806984023734e-01
4.891115751255639132e-01
1.063948726032936332e+00
0.000000000000000000e+00
0.000000000000000000e+00
0.000000000000000000e+00
0.000000000000000000e+00
0.000000000000000000e+00
0.000000000000000000e+00
0.000000000000000000e+00
0.000000000000000000e+00
9.787215823279157845e-02
1.341641757817043090e-01
6.105386571648935973e-02
9.490133315512351564e-02
6.809240364723463668e-02
1.254844699911380479e-01
3.391047015284701788e-02
-1.097456589164405236e-02
-6.259180693939930297e-03
6.907127780971846973e-03
2.587091336015418658e-02
3.100559144339087511e-02
6.487971980547156681e-02
5.587481390670205605e-02
2.497507916139526940e-02
-2.015420523629850649e-02
-1.412948940751746277e-02
1.321672467400874726e-02
6.258773575357139130e-03
2.127608108771245413e-02
2.258436712856574935e-02
1.174301784459650701e-02
1.694935150256809617e-02
-2.321768036434540203e-02
-2.665059305154322475e-02
-1.090362940918067304e-03
-5.258139156780748322e-03
1.322302540896076913e-02
1.610056258793161194e-02
5.965627950595353557e-03
1.039584071860015328e-02
-2.406589245169589095e-02
-2.567485522614676788e-02
-3.494791258174590777e-03
-3.562090945670973782e-03
-9.768144610276833714e-03
4.107236725063572770e-03
3.127573381524823698e-03
3.099834317318487034e-02
-1.291435388456028607e-02
-3.542957115695986869e-02
7.401072119594395227e-04
-1.998508233333674139e-02
-2.423105260959197357e-02
-1.494590125996161749e-02
2.546615541349828843e-02
3.995817896765477273e-02
-2.148937164717665965e-02
0.000000000000000000e+00
0.000000000000000000e+00
0.000000000000000000e+00
0.000000000000000000e+00
0.000000000000000000e+00
0.000000000000000000e+00
0.000000000000000000e+00
0.000000000000000000e+00
-1.672980421083412328e-01
-8.893809552410354702e-02
-3.394532123575173116e-02
-4.921790372410948106e-02
6.064987882342218889e-02
-9.705145536780829252e-02
-1.512653794081318670e-02
-1.070490673388101166e-01
-7.305830271688774913e-02
-4.067864004741412326e-02
7.206873612037180410e-02
3.642562566961598386e-02
2.327397986401767011e-02
6.249913031350522175e-02
6.409596539345430340e-03
-1.697737977882176133e-02
-4.683907283815121059e-02
5.962883900816442345e-02
3.689224787362087310e-02
6.582177848312188717e-02
8.447801792130502085e-02
1.287957199471181924e-01
7.303483520854980870e-02
4.390015248695900568e-02
-9.068951980903213264e-03
1.800242670895826555e-02
1.952942014403381485e-02
5.445686440151178281e-02
3.566094591161243776e-02
6.998498527782602563e-02
1.815460046862049648e-02
2.233587035461257961e-02
-1.272258379293170899e-02
4.316140819064454709e-03
1.576702513221778235e-02
1.482265295460329611e-02
2.909627850781763142e-02
2.024134670362198046e-02
2.061790403708816180e-02
-7.533020619188769348e-03
-2.330094028525197397e-02
-9.376160930986282560e-03
8.690904314169920278e-03
9.795203208876262363e-03
1.930311759520831130e-02
1.532350462858014448e-02
2.592889282763344641e-02
-1.604464181377601370e-02
-2.899844924473521032e-02
-5.303694256844100618e-02
-1.215326571001318530e-02
-3.046328179504676371e-03
-6.745990047023045283e-04
1.726055424605820593e-02
-1.398543301155666559e-02
-1.883062854518065612e-02
-1.049999999999999961e-01
-2.335654335683629013e-02
-5.799833260827889220e-02
-3.268866235060883391e-02
-1.698490542587843127e-02
-2.793181695321386368e-02
-1.992202933609224860e-02
-2.295161973824687632e-02
-2.895116458947408211e-02
4.032153579919144082e-03
-8.191611577166930946e-02
-3.700961944763717787e-02
-2.523024385742361417e-02
-4.216062148517826097e-02
8.200778447689509310e-03
-8.567094617397694525e-03
-2.581808431926560857e-02
1.650370735047731671e-02
-1.763945978331758410e-02
-1.304444747134297401e-02
3.013079111003909988e-02
5.984341732657594282e-02
1.779303010503362897e-02
-4.663046751908216797e-02
-1.625452622683753318e-02
3.691827198516084430e-02
4.359984437825892983e-02
3.990424701236078980e-02
3.820045040655485613e-02
5.027893289924080522e-02
3.745322171384680293e-02
-1.421891194337117793e-03
-3.486095566528620276e-03
4.828573538604681754e-03
1.854472144254977126e-02
4.999117106837506347e-02
3.793357780901945864e-02
3.680758334444445001e-02
7.753334192336632479e-03
-1.937944737236723747e-03
-6.413261351984692223e-03
1.294390222345315720e-02
1.329687279664523193e-02
2.680139348267736657e-02
3.353647490768112832e-02
1.162907547064795724e-02
9.536321457696237194e-03
3.946060176251237929e-03
9.113974071252571064e-04
1.648250513827947267e-02
1.509666369023202233e-02
1.327526395854953037e-02
1.410175717918479669e-02
2.774700439904676658e-02
1.888749329236183438e-02
9.947562215331579027e-03
4.093880285115096725e-03
1.504942088839763582e-02
1.699475254166263327e-02
-1.437907872156618018e-04
5.114857723552908991e-03
2.186695839517199119e-02
3.019548825696547964e-02
1.102483738568495230e-03
-3.255209185083385998e-02
-3.003323058266170117e-03
-1.558190777916956642e-02
-2.102955885876050049e-02
-1.303637023860977108e-02
-7.755538294846015847e-03
-3.867716374286121750e-02
-2.121063408740531814e-02
3.192973363917411822e-02
4.280570625059110235e-02
3.219378697534305833e-02
5.280494083537125294e-02
6.364740560583651008e-02
9.163364305069114299e-03
3.083717937957406938e-02
4.369340913289793127e-02
2.667652822361374007e-02
3.213075909019474929e-02
5.716868465677860112e-02
6.161672074903947610e-02
8.023324355684012532e-02
6.685388715210172084e-02
2.564245594027792299e-02
4.386710844714265811e-02
-5.073135821180205750e-03
1.868290937741619653e-02
2.591848546871988387e-02
3.616233212050855295e-02
1.694885242750865037e-02
4.489566194850544423e-02
6.112334304547713260e-02
1.565117979153498110e-02
-2.413831672205134574e-02
-1.053664836117384866e-02
7.028293306770324114e-03
2.627584722557083433e-02
2.398143161810062721e-02
3.542036001432191661e-02
-8.571578893862379783e-03
-1.985965493731036910e-02
-3.550954609829936465e-02
-2.620357687781927833e-02
-1.231510599003197287e-02
-7.695444695603092990e-04
9.244046237946392311e-03
-6.636788103013132982e-03
6.566217956943038760e-03
-2.232406123445529814e-02
-4.504583153049136063e-02
-2.496739696928423208e-02
-1.550384166989242189e-02
-1.688782443079173134e-02
2.854839374047449772e-03
-1.066241788135849876e-03
-5.125179652336620158e-03
-3.291088186688787692e-02
-4.381275782871775493e-02
-1.615686189739089229e-02
-2.018860764015096426e-02
-9.676125988505762318e-03
-1.253426639228428412e-03
9.323954868871156196e-03
-6.164654967216869411e-03
-7.138051631257123775e-02
-2.037218073319716979e-02
-7.204302247420120084e-03
4.144898078386057244e-04
2.234288659749814401e-02
1.574582527645633501e-02
6.276665302117273755e-03
-3.875955968866808682e-02
-2.059681122078621529e-02
-2.715856988419308379e-02
1.002904118588269621e-03
2.943709414085643808e-02
1.262002932537078549e-02
5.973492413528840722e-02
4.597661042099449730e-02
4.331935738388327517e-02
4.665943038379551794e-02
-2.586307661170372113e-02
-3.590200612058583318e-02
-1.967009888459656571e-03
3.012415369885766605e-03
-1.380940651822847899e-02
6.186804197158712187e-02
2.815439142543285297e-02
5.326470236035022593e-02
-1.297753025330060372e-02
-1.674400081939848850e-02
9.315297083218454857e-03
8.087415675349476571e-03
2.963990581665058507e-02
5.648862833838334124e-02
4.840389048312612741e-02
5.731742539701937394e-02
-2.697432255664083955e-02
-2.633638040664315269e-02
-1.592840322609838724e-02
-1.271463957486953719e-02
1.173260613442298449e-03
1.756347455132728497e-02
-2.276278851615908937e-03
3.168024732637247931e-03
-8.470001732430561953e-03
-2.681965288112271584e-02
-6.833869294458232331e-03
-1.073979431027288940e-02
-2.375834846814711947e-03
-2.916306445367624310e-03
2.303256968651103392e-03
-4.178566710597909385e-03
-1.442603333994079036e-02
2.195509588408763989e-03
-1.077295637547383798e-02
-2.364469946777868897e-03
-5.345765743298861415e-03
3.508826414702734871e-03
1.505431154397589462e-02
3.201734031709686443e-03
-3.493745233720050442e-02
-8.628830231644804560e-03
1.384044922462964074e-02
2.001183266057970922e-03
8.889861702654981712e-03
1.568010607846068855e-02
-3.208837305439730340e-03
8.384918193753806070e-04
-5.330364112254113861e-05
-1.785322648911566445e-02
-9.788166919517020739e-03
8.779614273871092292e-03
-1.547739138088968444e-02
-2.318745445830734664e-02
-3.088401996377451025e-02
-4.963828354143447891e-02
-6.513397762910168309e-02
2.302230451802924835e-02
1.587402663139727763e-02
-1.509381211717655304e-02
-5.612088871816584695e-02
-3.397355654260295760e-02
1.750110678304482277e-03
1.269225017696702477e-02
2.890751667813566683e-02
-9.280593386268180594e-04
-1.998225456973394890e-02
-7.069349995119488493e-03
-8.011141082035913921e-03
-3.952266219005735708e-03
-3.790675702317805595e-02
-2.904244346565797510e-02
-8.971697109144237750e-03
2.397586940898092933e-02
2.231874553408101907e-03
-1.616819919059970384e-02
-2.002027937677533856e-02
6.190493235035353196e-03
2.241494869326235082e-02
-2.202007461580252068e-02
-1.707342423502962794e-02
-2.000761877508244052e-02
-1.202078062786033491e-02
-2.723883418927870378e-02
-3.002785920002629463e-02
-2.466593549098438157e-02
-1.414234543021163255e-02
-3.623346066914269470e-02
-4.912319379092672245e-02
-1.030402874961821886e-03
-2.679562944500957222e-02
-3.923682124727988219e-02
-4.591706788302738623e-02
-4.391615357982174561e-02
-3.332191023656536771e-02
-5.115396472673134493e-02
-1.399715539767626762e-02
-1.436514453117841879e-02
-2.204209356567595965e-02
-4.595556849904655627e-02
-4.374701484863407347e-02
-2.978072130608862278e-02
-1.475702292557323943e-02
-2.714337093192740677e-02
1.002112678102316801e-03
6.984639871328720932e-03
-8.365252104326183213e-03
-6.384690265551656863e-02
-4.298131587687147037e-02
-1.655251573171769019e-02
8.916213455458257137e-03
8.223603463266348362e-03
-1.499259451698456251e-02
3.631933380963264096e-02
1.337340787523897886e-02
-5.402319406398704837e-02
7.522567721834639773e-03
-2.831612172487843818e-02
2.535586878690640825e-02
1.340900583946035354e-02
5.350366075385568944e-03
1.029939970178633812e-02
8.644197616910801255e-03
4.574146294477695988e-03
8.600234148079907714e-03
8.348753647353039653e-03
1.390478985232862855e-02
5.426551462355920508e-02
-2.498900202742541932e-02
9.989136793697550587e-02
2.773342097640175141e-01
3.154809612568906241e-01
5.275401161746484657e-01
9.922929987857100897e-01
0.000000000000000000e+00
0.000000000000000000e+00
0.000000000000000000e+00
0.000000000000000000e+00
0.000000000000000000e+00
0.000000000000000000e+00
0.000000000000000000e+00
0.000000000000000000e+00
1.778283160139570718e-01
1.730381226470036615e-01
1.578397425624361028e-01
1.336943348466895221e-01
1.469121634540451471e-01
1.317101819794399276e-01
1.648977515540898109e-01
1.870395793178998012e-01
9.370260031047818183e-02
9.984043232917513833e-02
8.490508020250876753e-02
6.706852369796095781e-02
5.587635580548480640e-02
5.278868767310765375e-02
8.199454022755417459e-02
8.383757723475217249e-02
3.235808481531357583e-02
2.422824326578872089e-02
1.315840183237371175e-02
5.205240130115202334e-03
-2.457445533467302393e-03
3.930179979888493054e-03
1.741520348438818991e-02
1.664720065595819490e-02
1.357566536444945911e-02
1.018334838910251935e-02
-3.191572325775308798e-03
-6.347027485291403294e-03
-7.394880390239772297e-03
-8.656509046407757577e-03
4.350334092117717072e-03
-7.499465943597174002e-04
4.037932111951033666e-03
7.151697123574828584e-03
-6.088533496547396222e-03
1.392162379070449032e-03
1.416526995150670619e-03
-4.135035706227405995e-03
-2.649928436196233826e-03
-8.576907988662165958e-03
1.275974616589442730e-02
8.621761182153485359e-03
8.578507584075056522e-03
9.099252984597804711e-03
1.293843678640353538e-02
1.705534516044189671e-03
4.063691510081026380e-03
-6.651986323974768377e-03
0.000000000000000000e+00
0.000000000000000000e+00
0.000000000000000000e+00
0.000000000000000000e+00
0.000000000000000000e+00
0.000000000000000000e+00
0.000000000000000000e+00
0.000000000000000000e+00
-5.788829510240361270e-02
-3.793255986640312744e-02
-1.294439641562929351e-02
-2.803919192817854247e-02
-3.128370824599582128e-02
-2.703762574876514974e-02
-6.343389757547988894e-02
-9.933825721661336539e-02
-2.510900199828045368e-02
-8.045441115025803516e-03
-2.501158391120514649e-02
-1.172307602002445760e-03
-9.027138348673195006e-03
-2.476152444463723679e-02
-2.427751646129714183e-02
-5.214438754814748611e-02
-2.377829885690036643e-02
-2.103498415894570345e-02
9.906954113686642499e-03
9.169920689141795520e-03
-8.761757067327876139e-04
-9.420483744168740847e-03
-1.893530791476602179e-02
-4.117755454472400711e-02
-1.735185048318426543e-02
3.649635099153098958e-03
2.196828988879359623e-02
2.357700723836346837e-02
2.130380102705375575e-02
1.269687493829207460e-02
8.199207150539053468e-03
-1.793416608522919661e-02
-1.802136921659497001e-02
-5.377224637143012721e-03
1.384630307135271444e-02
2.518377519053251884e-02
1.652902110483027778e-02
1.809059518520261117e-02
3.558971360643248955e-03
-1.785184882192486847e-02
-2.304287793739013407e-02
-3.144020133084875126e-03
-3.055247110240344715e-03
1.485395750322007075e-02
9.548302740629496799e-03
-3.875530610971902705e-03
-1.856299393222628213e-02
-2.266528284733759432e-02
-4.200181664154740979e-02
-2.006638118803095311e-02
-1.016554294088754112e-02
-5.342769849199346943e-03
-2.106978738305257011e-03
-2.081321852907353637e-02
-2.300494801258417057e-02
-4.426199702892046756e-02
-2.900000000000000147e-02
-5.174396303698783339e-02
-2.299766565161430812e-02
-1.468763344941971527e-02
-2.202454090510835155e-02
-1.802731310410634127e-02
-5.007177166811307284e-02
-6.387981550819794851e-02
-1.387181556791877365e-02
-2.104130856732532376e-02
-1.089594803190738898e-02
-8.030954715147455014e-03
-7.319297939340239055e-03
-8.882417518940186052e-03
-1.549098442406692845e-02
-2.480717776826684914e-02
-7.851576142344624670e-03
-3.457453370205294026e-03
7.527337257511274721e-03
-1.222346428626514339e-02
-2.908129276483099619e-03
-1.189872789965236780e-02
-3.584878500355741324e-03
-1.293724810907623431e-02
2.040112076913840489e-03
-8.299738101472801596e-03
1.169918063184048965e-03
-1.483389882688175261e-03
2.477408039753297830e-03
6.100811128917438611e-03
3.420660045878351312e-04
4.557833635645595037e-03
-2.741680472103308949e-03
8.202501444645082102e-03
1.056678376056271844e-02
1.015181978921883554e-02
1.576464808745190946e-02
9.753320635132628133e-03
3.781661114530520014e-03
1.837166704049536872e-03
-6.351389027418702544e-03
2.799187179382976211e-03
1.180792790542175945e-02
1.966496238170795802e-02
6.359605634121844389e-03
1.082756008016113984e-02
-3.164728475596472693e-03
-9.245343087903029958e-03
-1.092150228141747226e-02
-1.839578018575158905e-03
9.129756157004209269e-03
9.465040404086822248e-03
1.326928276461641909e-02
3.421381483086123436e-03
-7.054047586718718670e-03
-1.482757803569840875e-02
-1.400611978596225451e-02
-1.856563697382879186e-02
-6.328179612187575555e-03
3.366548516447228213e-04
3.327710810266752781e-03
-8.315799454178837355e-03
-1.466038711142530170e-02
-2.686300740534908540e-02
-2.198223274282258208e-02
-8.963623786196851101e-03
-2.447276151102507555e-02
-5.364692274087621421e-03
-8.623462754007762618e-03
-1.344110425075325035e-02
-3.982673668734041175e-03
-1.750145771926779267e-02
1.231862611098352017e-02
1.138873608107087397e-02
1.770982901897990777e-02
1.738573025072307279e-02
1.277606005708557813e-02
1.216481766262651754e-02
7.156606291354723585e-03
5.465834760118779695e-03
1.076440703890546059e-02
1.392906853886534922e-02
1.313586514532044149e-02
1.172022153052658389e-02
-3.060197713900876960e-03
2.748496511428572681e-03
7.403689640389838136e-03
2.938296514714864444e-03
6.986781606492060634e-03
6.573487892643902625e-03
7.037625667603991664e-03
5.386093921708007444e-03
4.229393984317174338e-03
-3.258929916111721892e-03
-4.610335265677146209e-03
-3.101303246605137919e-03
4.020622429134503711e-03
3.709478646436014087e-03
1.325810210461086762e-02
9.182730318907134266e-04
2.389989846845000290e-03
1.700700878911226652e-03
-9.929395170401268331e-04
2.181586357679381888e-03
3.849461922446917664e-03
4.699369345695697010e-03
7.911258684675038025e-03
3.989970315824489626e-03
-4.875941361661413447e-03
-5.523828671904431123e-03
-7.245506900743258274e-03
-1.079594391637942949e-02
-3.929470153282902875e-03
4.341323052801408983e-04
-4.325775705848597039e-03
-1.035148820010839887e-03
-7.453910281391854485e-03
-1.338540348523267060e-02
-8.211912674950000435e-03
-1.565241695137046737e-02
-6.143976552766664684e-03
-6.524566524956039448e-03
6.752800934816669595e-04
1.903479406295724733e-03
-9.011086149205262477e-03
-1.008868153850612723e-02
-1.133742706471827129e-02
-3.480022949703663517e-03
-8.753681084813978025e-03
6.788139211237722952e-03
2.478194839613648975e-03
7.749782708753917299e-04
-4.683586987367866286e-03
-1.131641890745775821e-02
3.509166513459879410e-03
-1.807332391399852148e-02
-7.665487469351538012e-03
2.349316914094732450e-02
2.392734573045192728e-02
2.840673285185713048e-02
2.810608557469919735e-02
2.070184679684643550e-02
1.083968056067137128e-02
2.163068627352432438e-02
-2.108952944128518123e-02
2.365424143836354631e-02
3.523966459086291803e-02
4.282547883344530598e-02
6.121046199471157079e-02
2.949763467495729319e-02
3.097392159164152892e-02
-1.973817304288548891e-03
-1.986787918336531747e-02
7.159118730148878763e-03
9.506749169636978178e-03
4.847151307903154599e-02
4.722143382530209071e-02
3.486025682276708282e-02
2.088789878026239485e-02
9.196735224033024056e-03
2.973447564745484040e-03
2.468670815773716526e-02
2.371221915757113982e-02
4.784732717929722490e-02
6.113716967226480448e-02
4.178139438913352349e-02
5.698579682844862049e-02
3.746883133805496702e-02
-1.803534775232834911e-02
2.715623914999903271e-02
2.199111206235813271e-02
4.733433275417699149e-02
3.043014953316455426e-02
3.712831962193266500e-02
3.918449612078350741e-02
2.332970404772869225e-02
-1.650101770550359281e-02
-2.490236072093577127e-02
1.489421836941878796e-02
6.661069982075707580e-03
7.306616230273274559e-03
2.000339846688368312e-02
1.152065430442698359e-02
4.873690820236010156e-03
-2.178248326509613433e-02
-2.288875491449210084e-02
-2.944992063941134081e-02
-1.460468017546597171e-02
-1.400402508090997297e-02
-2.167875035582605275e-02
-3.714665313553146969e-02
-3.239485047365850412e-02
-3.130963940361786851e-02
-2.731406469733953929e-02
-2.122177552909663978e-02
-4.574409101184007814e-02
-4.129083975301056468e-03
-3.018382185684527486e-02
-2.022456710849526371e-02
-4.081195144918197543e-02
-7.439127639036721695e-02
-3.489542021645199860e-02
-1.829104453176736214e-02
-1.822781593878845807e-02
-1.128579408717739034e-02
1.496165592302571221e-02
3.290603257458155507e-03
-1.778632271916309043e-02
-1.222606664424508681e-02
1.727025014656189197e-02
1.416207953867207672e-02
1.681358538472197545e-02
1.699502753668616362e-02
3.790033916294891642e-02
2.336860170622592422e-02
1.062485393876795928e-02
1.004217617277812849e-02
1.699856392968559018e-02
2.356485691431050786e-02
1.431110018069532697e-02
2.002174980776300767e-02
4.540649312166742529e-02
4.503180459082095632e-02
1.295135667003029581e-02
-8.430590520782588887e-03
2.198353737888352269e-02
2.388611097745051842e-02
2.611336134147278221e-02
2.602724501312288219e-02
3.353988823302637978e-02
2.575884013638419373e-02
2.288187635681844523e-03
-1.844199715738668865e-02
-3.965384360038290597e-03
2.158790071069234887e-02
2.323676421713092438e-02
2.712633726416724400e-02
2.340254897403784909e-02
8.302907189189414131e-03
-1.127640943466193604e-02
-1.904947683623455304e-02
-3.642958324125404428e-03
1.140336094337602267e-02
2.037098847141154481e-02
2.311869564513363909e-02
1.679100648750164390e-02
7.108691043562626911e-03
-9.025418267161300356e-03
-2.707381537866792795e-02
-1.075995838263907149e-02
4.061284851174682894e-03
1.359841422262801983e-02
1.370098851216578796e-02
3.673478803227943346e-03
-4.730747091215122685e-03
-1.629267226838225502e-02
-5.281556716443861627e-02
-3.387085114442010825e-02
-2.031962317503313228e-02
-1.061209649648519812e-02
-2.833176480239949641e-02
-1.369849678670522972e-02
-2.224212465192706989e-02
-4.311194326357743745e-02
5.244169145946017338e-03
9.842070421413311870e-03
9.046190176243740916e-03
4.958550778284180095e-03
9.876288413761900170e-03
9.068577175418172584e-03
1.413747078172905049e-02
5.502912093120253950e-02
-2.616869710565068036e-02
1.219302730976118063e-02
